<?xml version="1.0"?>
<opencv_storage>
<stage2>
  <maxWeakCount>11</maxWeakCount>
  <stageThreshold>-1.7266333103179932e+00</stageThreshold>
  <weakClassifiers>
    <_>
      <internalNodes>
        0 -1 123480 -3.3331536687910557e-03</internalNodes>
      <leafValues>
        2.1710693836212158e-01 -7.8670787811279297e-01</leafValues></_>
    <_>
      <internalNodes>
        0 -1 66836 6.7196292802691460e-03</internalNodes>
      <leafValues>
        -5.2164709568023682e-01 4.6426945924758911e-01</leafValues></_>
    <_>
      <internalNodes>
        0 -1 91335 1.4153034426271915e-03</internalNodes>
      <leafValues>
        -6.9300663471221924e-01 2.3589342832565308e-01</leafValues></_>
    <_>
      <internalNodes>
        0 -1 128793 -4.0263514965772629e-03</internalNodes>
      <leafValues>
        2.9953148961067200e-01 -4.8518478870391846e-01</leafValues></_>
    <_>
      <internalNodes>
        0 -1 120195 -1.0665403679013252e-03</internalNodes>
      <leafValues>
        -5.9864640235900879e-01 2.6331976056098938e-01</leafValues></_>
    <_>
      <internalNodes>
        0 -1 112889 -1.0444096005812753e-05</internalNodes>
      <leafValues>
        2.5945231318473816e-01 -4.9878308176994324e-01</leafValues></_>
    <_>
      <internalNodes>
        0 -1 27057 -9.1979932039976120e-03</internalNodes>
      <leafValues>
        2.9044240713119507e-01 -4.1355091333389282e-01</leafValues></_>
    <_>
      <internalNodes>
        0 -1 37934 4.2349800467491150e-02</internalNodes>
      <leafValues>
        -2.4137826263904572e-01 5.3071093559265137e-01</leafValues></_>
    <_>
      <internalNodes>
        0 -1 31820 7.4533827602863312e-02</internalNodes>
      <leafValues>
        -2.4454705417156219e-01 6.2714546918869019e-01</leafValues></_>
    <_>
      <internalNodes>
        0 -1 88475 1.3985685072839260e-03</internalNodes>
      <leafValues>
        1.9552405178546906e-01 -6.1527782678604126e-01</leafValues></_>
    <_>
      <internalNodes>
        0 -1 8523 -2.1319004893302917e-01</internalNodes>
      <leafValues>
        6.2296038866043091e-01 -1.8667195737361908e-01</leafValues></_></weakClassifiers></stage2>
</opencv_storage>
