<?xml version="1.0"?>
<opencv_storage>
<stage12>
  <maxWeakCount>33</maxWeakCount>
  <stageThreshold>-1.6262924671173096e+00</stageThreshold>
  <weakClassifiers>
    <_>
      <internalNodes>
        0 -1 119610 -6.0301960911601782e-04</internalNodes>
      <leafValues>
        -5.3659206628799438e-01 1.9277897477149963e-01</leafValues></_>
    <_>
      <internalNodes>
        0 -1 119610 -1.0271939572703559e-05</internalNodes>
      <leafValues>
        1.5427619218826294e-01 -6.2658625841140747e-01</leafValues></_>
    <_>
      <internalNodes>
        0 -1 66837 5.4330257698893547e-03</internalNodes>
      <leafValues>
        -4.0632236003875732e-01 2.1986266970634460e-01</leafValues></_>
    <_>
      <internalNodes>
        0 -1 56622 1.4727857708930969e-01</internalNodes>
      <leafValues>
        -8.0101780593395233e-02 8.2538294792175293e-01</leafValues></_>
    <_>
      <internalNodes>
        0 -1 1236 1.7708856612443924e-02</internalNodes>
      <leafValues>
        -2.5061929225921631e-01 3.0076354742050171e-01</leafValues></_>
    <_>
      <internalNodes>
        0 -1 134638 -7.3651375714689493e-05</internalNodes>
      <leafValues>
        1.7637754976749420e-01 -3.7775942683219910e-01</leafValues></_>
    <_>
      <internalNodes>
        0 -1 89443 2.1162541088415310e-05</internalNodes>
      <leafValues>
        1.7093822360038757e-01 -3.5121342539787292e-01</leafValues></_>
    <_>
      <internalNodes>
        0 -1 158055 -2.2666353732347488e-02</internalNodes>
      <leafValues>
        3.5816141963005066e-01 -1.6205251216888428e-01</leafValues></_>
    <_>
      <internalNodes>
        0 -1 112543 4.5760080683976412e-04</internalNodes>
      <leafValues>
        1.5966428816318512e-01 -3.5459065437316895e-01</leafValues></_>
    <_>
      <internalNodes>
        0 -1 38541 1.0656315680535045e-05</internalNodes>
      <leafValues>
        -3.5914674401283264e-01 1.4042682945728302e-01</leafValues></_>
    <_>
      <internalNodes>
        0 -1 823 -5.9168785810470581e-02</internalNodes>
      <leafValues>
        -6.2296962738037109e-01 9.3702815473079681e-02</leafValues></_>
    <_>
      <internalNodes>
        0 -1 42180 5.4646781645715237e-03</internalNodes>
      <leafValues>
        -1.6525323688983917e-01 3.1267106533050537e-01</leafValues></_>
    <_>
      <internalNodes>
        0 -1 138936 -5.7533010840415955e-03</internalNodes>
      <leafValues>
        2.8408309817314148e-01 -1.8157064914703369e-01</leafValues></_>
    <_>
      <internalNodes>
        0 -1 10694 -8.2101255655288696e-02</internalNodes>
      <leafValues>
        6.1818987131118774e-01 -9.6336424350738525e-02</leafValues></_>
    <_>
      <internalNodes>
        0 -1 88377 3.3530837390571833e-03</internalNodes>
      <leafValues>
        1.2160177528858185e-01 -4.7559416294097900e-01</leafValues></_>
    <_>
      <internalNodes>
        0 -1 95846 1.9768852740526199e-02</internalNodes>
      <leafValues>
        1.0348818451166153e-01 -4.8132047057151794e-01</leafValues></_>
    <_>
      <internalNodes>
        0 -1 84839 1.4319916954264045e-03</internalNodes>
      <leafValues>
        -4.8456853628158569e-01 9.6757642924785614e-02</leafValues></_>
    <_>
      <internalNodes>
        0 -1 15600 -4.8380279913544655e-03</internalNodes>
      <leafValues>
        -4.1731885075569153e-01 1.1668350547552109e-01</leafValues></_>
    <_>
      <internalNodes>
        0 -1 84138 9.6963951364159584e-04</internalNodes>
      <leafValues>
        -1.4286379516124725e-01 4.0914228558540344e-01</leafValues></_>
    <_>
      <internalNodes>
        0 -1 75211 2.4666544049978256e-03</internalNodes>
      <leafValues>
        -1.0549134016036987e-01 5.2175486087799072e-01</leafValues></_>
    <_>
      <internalNodes>
        0 -1 45023 1.3813120312988758e-03</internalNodes>
      <leafValues>
        -2.3235964775085449e-01 2.1052382886409760e-01</leafValues></_>
    <_>
      <internalNodes>
        0 -1 107440 -1.1171537917107344e-03</internalNodes>
      <leafValues>
        -5.9255349636077881e-01 7.3054715991020203e-02</leafValues></_>
    <_>
      <internalNodes>
        0 -1 151313 -1.1436994187533855e-02</internalNodes>
      <leafValues>
        3.7516495585441589e-01 -1.2733615934848785e-01</leafValues></_>
    <_>
      <internalNodes>
        0 -1 3342 -2.6971274055540562e-03</internalNodes>
      <leafValues>
        -5.5474215745925903e-01 8.1926666200160980e-02</leafValues></_>
    <_>
      <internalNodes>
        0 -1 69572 -1.6412157565355301e-03</internalNodes>
      <leafValues>
        1.9653987884521484e-01 -2.2128163278102875e-01</leafValues></_>
    <_>
      <internalNodes>
        0 -1 44909 -1.1957770586013794e-01</internalNodes>
      <leafValues>
        4.3389582633972168e-01 -1.1414200067520142e-01</leafValues></_>
    <_>
      <internalNodes>
        0 -1 21488 2.7202993631362915e-02</internalNodes>
      <leafValues>
        -2.3504067957401276e-01 2.4751056730747223e-01</leafValues></_>
    <_>
      <internalNodes>
        0 -1 66286 1.4831484295427799e-03</internalNodes>
      <leafValues>
        -1.3655711710453033e-01 3.4534540772438049e-01</leafValues></_>
    <_>
      <internalNodes>
        0 -1 151687 -2.5928821414709091e-03</internalNodes>
      <leafValues>
        2.7023527026176453e-01 -1.3701155781745911e-01</leafValues></_>
    <_>
      <internalNodes>
        0 -1 89846 -2.8539323247969151e-03</internalNodes>
      <leafValues>
        -6.8529015779495239e-01 5.8719690889120102e-02</leafValues></_>
    <_>
      <internalNodes>
        0 -1 123018 -3.5798375029116869e-03</internalNodes>
      <leafValues>
        7.8988730907440186e-02 -4.5059958100318909e-01</leafValues></_>
    <_>
      <internalNodes>
        0 -1 79488 -1.6499876976013184e-02</internalNodes>
      <leafValues>
        -6.5158528089523315e-01 5.5920664221048355e-02</leafValues></_>
    <_>
      <internalNodes>
        0 -1 94292 -4.6246228739619255e-03</internalNodes>
      <leafValues>
        3.6305451393127441e-01 -1.0942775756120682e-01</leafValues></_></weakClassifiers></stage12>
</opencv_storage>
