<?xml version="1.0"?>
<opencv_storage>
<stage6>
  <maxWeakCount>33</maxWeakCount>
  <stageThreshold>-1.5714709758758545e+00</stageThreshold>
  <weakClassifiers>
    <_>
      <internalNodes>
        0 -1 49455 -1.4344353228807449e-02</internalNodes>
      <leafValues>
        4.5173171162605286e-01 -3.5142546892166138e-01</leafValues></_>
    <_>
      <internalNodes>
        0 -1 134068 -2.6195358484983444e-02</internalNodes>
      <leafValues>
        2.8438377380371094e-01 -2.7668714523315430e-01</leafValues></_>
    <_>
      <internalNodes>
        0 -1 119650 -2.1515377738978714e-05</internalNodes>
      <leafValues>
        1.3890294730663300e-01 -5.1112687587738037e-01</leafValues></_>
    <_>
      <internalNodes>
        0 -1 119926 -8.5073622176423669e-04</internalNodes>
      <leafValues>
        -4.0402916073799133e-01 3.0662396550178528e-01</leafValues></_>
    <_>
      <internalNodes>
        0 -1 121174 2.3932021576911211e-03</internalNodes>
      <leafValues>
        -3.0787053704261780e-01 2.8529444336891174e-01</leafValues></_>
    <_>
      <internalNodes>
        0 -1 126635 -2.0589654013747349e-05</internalNodes>
      <leafValues>
        2.7044880390167236e-01 -4.2051902413368225e-01</leafValues></_>
    <_>
      <internalNodes>
        0 -1 31989 9.8099540919065475e-03</internalNodes>
      <leafValues>
        -2.8556090593338013e-01 2.3898215591907501e-01</leafValues></_>
    <_>
      <internalNodes>
        0 -1 91414 1.5786966308951378e-02</internalNodes>
      <leafValues>
        -5.1490974426269531e-01 9.3670450150966644e-02</leafValues></_>
    <_>
      <internalNodes>
        0 -1 89836 -1.1433020699769258e-03</internalNodes>
      <leafValues>
        -5.8331429958343506e-01 7.3473855853080750e-02</leafValues></_>
    <_>
      <internalNodes>
        0 -1 126739 7.7905069338157773e-04</internalNodes>
      <leafValues>
        -1.8640802800655365e-01 2.3320001363754272e-01</leafValues></_>
    <_>
      <internalNodes>
        0 -1 33128 5.3973242640495300e-02</internalNodes>
      <leafValues>
        -2.0799942314624786e-01 2.4980746209621429e-01</leafValues></_>
    <_>
      <internalNodes>
        0 -1 56078 -6.2262728810310364e-02</internalNodes>
      <leafValues>
        4.5571243762969971e-01 -1.2977358698844910e-01</leafValues></_>
    <_>
      <internalNodes>
        0 -1 159460 1.3290946371853352e-03</internalNodes>
      <leafValues>
        1.0607706755399704e-01 -5.4728466272354126e-01</leafValues></_>
    <_>
      <internalNodes>
        0 -1 151815 -1.9787497876677662e-05</internalNodes>
      <leafValues>
        1.3585647940635681e-01 -2.6089099049568176e-01</leafValues></_>
    <_>
      <internalNodes>
        0 -1 154491 6.3256248831748962e-02</internalNodes>
      <leafValues>
        -8.1491068005561829e-02 5.9195679426193237e-01</leafValues></_>
    <_>
      <internalNodes>
        0 -1 113660 4.9287099391222000e-03</internalNodes>
      <leafValues>
        -6.7155629396438599e-02 5.3479880094528198e-01</leafValues></_>
    <_>
      <internalNodes>
        0 -1 98518 -1.4846752164885402e-03</internalNodes>
      <leafValues>
        -5.6284427642822266e-01 9.8158501088619232e-02</leafValues></_>
    <_>
      <internalNodes>
        0 -1 98518 1.5959253069013357e-03</internalNodes>
      <leafValues>
        6.5326541662216187e-02 -4.8764878511428833e-01</leafValues></_>
    <_>
      <internalNodes>
        0 -1 157315 -2.0298468880355358e-03</internalNodes>
      <leafValues>
        -5.8097994327545166e-01 3.2351367175579071e-02</leafValues></_>
    <_>
      <internalNodes>
        0 -1 8912 9.6100568771362305e-03</internalNodes>
      <leafValues>
        -1.4275903999805450e-01 2.2583587467670441e-01</leafValues></_>
    <_>
      <internalNodes>
        0 -1 125841 1.9888808310497552e-05</internalNodes>
      <leafValues>
        -2.6704308390617371e-01 1.5942253172397614e-01</leafValues></_>
    <_>
      <internalNodes>
        0 -1 77805 -2.4360264651477337e-03</internalNodes>
      <leafValues>
        -5.7118701934814453e-01 5.5593181401491165e-02</leafValues></_>
    <_>
      <internalNodes>
        0 -1 10660 -3.0809119343757629e-02</internalNodes>
      <leafValues>
        3.3979710936546326e-01 -1.1095818132162094e-01</leafValues></_>
    <_>
      <internalNodes>
        0 -1 77805 1.6422960907220840e-03</internalNodes>
      <leafValues>
        9.8610989749431610e-02 -4.4018337130546570e-01</leafValues></_>
    <_>
      <internalNodes>
        0 -1 142594 -5.0888452678918839e-03</internalNodes>
      <leafValues>
        1.7313221096992493e-01 -2.0374207198619843e-01</leafValues></_>
    <_>
      <internalNodes>
        0 -1 106191 1.1123849544674158e-03</internalNodes>
      <leafValues>
        -1.3748067617416382e-01 2.8647515177726746e-01</leafValues></_>
    <_>
      <internalNodes>
        0 -1 112858 -2.0221990780555643e-05</internalNodes>
      <leafValues>
        1.4277660846710205e-01 -2.4099631607532501e-01</leafValues></_>
    <_>
      <internalNodes>
        0 -1 112858 -5.5166491074487567e-04</internalNodes>
      <leafValues>
        -2.9747012257575989e-01 1.2311745434999466e-01</leafValues></_>
    <_>
      <internalNodes>
        0 -1 120792 3.3762352541089058e-03</internalNodes>
      <leafValues>
        -7.8067503869533539e-02 5.9735625982284546e-01</leafValues></_>
    <_>
      <internalNodes>
        0 -1 8901 -1.9403714686632156e-03</internalNodes>
      <leafValues>
        -5.9292930364608765e-01 6.4339302480220795e-02</leafValues></_>
    <_>
      <internalNodes>
        0 -1 105787 5.1372456364333630e-03</internalNodes>
      <leafValues>
        -6.3639670610427856e-02 6.0377985239028931e-01</leafValues></_>
    <_>
      <internalNodes>
        0 -1 127121 -4.7217079554684460e-04</internalNodes>
      <leafValues>
        -3.0564364790916443e-01 1.1482824385166168e-01</leafValues></_>
    <_>
      <internalNodes>
        0 -1 8237 -2.8658278752118349e-03</internalNodes>
      <leafValues>
        -5.8825898170471191e-01 5.5574249476194382e-02</leafValues></_></weakClassifiers></stage6>
</opencv_storage>
