<?xml version="1.0"?>
<opencv_storage>
<stage4>
  <maxWeakCount>16</maxWeakCount>
  <stageThreshold>-1.5773515701293945e+00</stageThreshold>
  <weakClassifiers>
    <_>
      <internalNodes>
        0 -1 64188 -5.6169893592596054e-02</internalNodes>
      <leafValues>
        3.3901694416999817e-01 -5.4291111230850220e-01</leafValues></_>
    <_>
      <internalNodes>
        0 -1 112890 -2.1520953159779310e-03</internalNodes>
      <leafValues>
        -4.9734520912170410e-01 2.3962625861167908e-01</leafValues></_>
    <_>
      <internalNodes>
        0 -1 83065 -5.7741766795516014e-03</internalNodes>
      <leafValues>
        1.9709986448287964e-01 -6.2916094064712524e-01</leafValues></_>
    <_>
      <internalNodes>
        0 -1 112890 -2.3194954337668605e-05</internalNodes>
      <leafValues>
        2.1322630345821381e-01 -5.7687509059906006e-01</leafValues></_>
    <_>
      <internalNodes>
        0 -1 142282 1.1428489349782467e-02</internalNodes>
      <leafValues>
        -2.8911021351814270e-01 3.7760138511657715e-01</leafValues></_>
    <_>
      <internalNodes>
        0 -1 67460 -2.2448778152465820e-02</internalNodes>
      <leafValues>
        -6.0728800296783447e-01 1.3974234461784363e-01</leafValues></_>
    <_>
      <internalNodes>
        0 -1 130184 -2.0673905964940786e-05</internalNodes>
      <leafValues>
        1.5311828255653381e-01 -5.6297081708908081e-01</leafValues></_>
    <_>
      <internalNodes>
        0 -1 154614 3.7329886108636856e-02</internalNodes>
      <leafValues>
        -2.0564649999141693e-01 6.0674297809600830e-01</leafValues></_>
    <_>
      <internalNodes>
        0 -1 98207 -6.1321007087826729e-03</internalNodes>
      <leafValues>
        3.6010447144508362e-01 -2.4164575338363647e-01</leafValues></_>
    <_>
      <internalNodes>
        0 -1 50380 2.0062383555341512e-05</internalNodes>
      <leafValues>
        -3.5489419102668762e-01 2.0047876238822937e-01</leafValues></_>
    <_>
      <internalNodes>
        0 -1 97520 8.5092603694647551e-04</internalNodes>
      <leafValues>
        1.3909338414669037e-01 -4.1616681218147278e-01</leafValues></_>
    <_>
      <internalNodes>
        0 -1 78677 -1.9753500964725390e-05</internalNodes>
      <leafValues>
        1.9392175972461700e-01 -2.9764884710311890e-01</leafValues></_>
    <_>
      <internalNodes>
        0 -1 22260 3.7205632776021957e-02</internalNodes>
      <leafValues>
        -1.5615347027778625e-01 3.3862408995628357e-01</leafValues></_>
    <_>
      <internalNodes>
        0 -1 54210 6.1606280505657196e-02</internalNodes>
      <leafValues>
        -1.1807954311370850e-01 5.0258541107177734e-01</leafValues></_>
    <_>
      <internalNodes>
        0 -1 95468 7.5174309313297272e-04</internalNodes>
      <leafValues>
        -3.5694783926010132e-01 1.8393385410308838e-01</leafValues></_>
    <_>
      <internalNodes>
        0 -1 56256 -5.3928187116980553e-03</internalNodes>
      <leafValues>
        2.2629283368587494e-01 -2.4376727640628815e-01</leafValues></_></weakClassifiers></stage4>
</opencv_storage>
